{"layers": [[{"inputs": 80, "activation": 1.9917334495258532, "output": 0.87992640739785, "weights": [-0.610676714860767, 2.203087493465649, 2.8472409223651733, 0.47617614731632857, -1.1401787950283515, -0.14041968261262472, -0.03530478303607672, -0.4399485754327269, -0.6368715910981022, -0.5484328898880126, 0.04951556957221123, -0.040325352705858596, -0.22533525113837763, 0.17732679944602175, 0.695896705929752, 1.0697940905946677, 1.776327869046746, 0.9374847394196854, 1.088217549549678, 0.2715975698023599, 0.49408577130219977, 0.0015558335759267882, 0.6181671501007711, -0.1240602766179205, 0.22254831781218395, 1.6949534508180684, 3.069078907028338, 2.1296099366366206, 1.6924098300726875, 1.2019472408289935, 0.5835653813984266, 0.005545184813931911, -0.034210738125724706, -0.2115613042826931, -0.3900103098643542, -0.28744546356555106, 0.6758098985876856, 2.5103985015751835, 3.2311799366149554, 0.9681875207044143, 0.2994819624844584, 0.40953785242940255, 0.11723615489073852, -0.19296097477866736, 0.2338130425649926, 1.1086176860668226, 1.469637671220774, 1.5265555533927613, 2.041988060175296, 1.4297239323552615, 1.0511605290958896, -0.024657445484698337, 0.03525745782582617, 0.03230131305350218, -0.6124688954405662, -0.7772020450638631, -0.5398824311340611, 0.5261399684398897, 0.8111415874827232, 1.2827864335860022, 0.09452931283536005, 0.02379435902344954, 0.028408009526625297, -0.17631797491368617, 0.5659433994427906, 0.7288145508045594, 0.3531544724897758, -0.21405497229084317, 0.3133291970199821, 0.01252939730691826, 0.448432620626238, 1.370290769614537, 3.5132408283235548, 3.0024248513731977, 3.2672036215371216, 2.4524484009552046, 0.7592812559661624, -0.11493126238700338, 0.0696230249174954, 0.17161435273598938, 0.08805797180920925], "delta": 0.00011988164557245934}, {"inputs": 80, "activation": 0.4519441187965546, "output": 0.6111013660639948, "weights": [1.4606118941775263, -0.5786632190794043, -1.7213909692731661, 0.6232317372246791, 2.24663258874966, 1.7041848607565604, 1.3236915806385021, 0.747703739738042, 2.071874480915691, 1.5155958884827008, 1.6583642991475063, 1.100889905268639, 0.67699673188432, 0.8982714526533202, 0.3990275422475264, -0.667154862300144, -0.5044868910890872, -0.7444129317504682, 0.2643787318116318, 0.9701406059647472, 1.0330045567804982, 0.3893482506034492, 1.2192140874455537, 0.8160040135162565, 0.9274116117724925, -0.3339383950236757, -2.163523118519776, -1.5389542267236769, -0.14139431708841482, -0.10799439188105117, 0.2547255752090048, 1.6300530537945948, 1.8514051318764497, 1.8946769378287551, 1.4665210404074729, 0.7621085362960363, 0.6321472348008147, -2.3257610215711138, -3.1869495486143715, -0.5091588777054282, 0.4098382068236208, 0.6380232359008398, 0.759091812279338, 0.5458124112263465, 0.471486579290543, 0.9322481570707828, 0.6449180879746712, -0.5111685088842589, -0.6158931469095343, 0.07373567613986229, 0.5873773118042256, 0.55489051568764, 0.6975149482384017, 0.7831416873263092, 0.8745841587375814, 1.1739869050746043, 0.8589121814863722, 1.0976195388179613, 0.39108687220694016, -0.7448218865375446, 0.20044123404616254, 1.479721614745297, 1.3855962913884745, 1.3825425520683083, 0.33056988412606103, 0.17496405338531465, 0.46959753924508935, 0.9574054953640355, 0.3134674570122172, 0.6995389096550252, 0.6463592210790088, -0.5085990771416934, -2.514147831546404, -1.7621614597044142, -1.867383903235485, -1.3081437327923522, 0.47606733275677826, 0.8982042802231633, 1.0619807130438323, 0.904257102823195, -0.4671195873461179], "delta": -0.00039260364451109493}, {"inputs": 80, "activation": 1.9859697474006142, "output": 0.8793161033749858, "weights": [0.55630223083937, 0.10802846143286239, 0.5120436779843429, 0.5911440018596419, -0.3438658072660428, -0.18337504157801351, 0.017867710708358978, -0.10087674562949112, 0.31520999789616627, -0.22731779938316826, 0.24420178452064684, 0.4072884025272974, 0.015637884455756656, 0.5261326343028065, 0.9252839239532127, 1.012638788984171, 0.8356684333048227, 0.394240052216041, 0.11165153147883308, 0.21678456790973857, 0.8065391338082506, 0.4677484225681464, 0.7611156501336692, 0.6235870719524086, 0.8693271981392567, 0.23505808777175533, 1.3442461413730626, 0.44484609505571077, 0.529364720455825, 0.40814066404727267, 0.31225421046389074, 0.02479912940547732, 0.27970565815787174, 0.017091880731050668, 0.33874903506967724, 0.6643850891814651, 0.34768840315686594, 0.7400064221387754, 0.7484057930408732, 0.50199108840928, 0.38282483360869174, 0.8434776382567332, 0.03897025723285202, 0.6407743085340367, 0.41750203828373433, 0.961167080785687, 1.044595829455706, 0.9269847956148534, 1.1654039721175418, 0.44955708559652724, 0.3659337045385844, 0.8785830286497524, 0.4449532208088905, 0.06799356197113701, -0.1495705789748773, -0.16929543284689355, 0.2488856777941439, 0.7579056101742576, 0.422290305281063, 0.7954158305472123, 0.604241774184976, 0.5842128661154523, 0.42741803481357155, 0.34203009173608584, 0.7286570829019599, 0.28869351689670925, 0.32770599587528015, 0.7444121156892874, 0.704966715197351, 0.8861630868414411, 0.6339484990536555, 0.32864717095599905, 1.3329575195369923, 0.7884036164626251, 0.7692537645242543, 0.9411485473129473, 0.25239863514599586, -0.002677500703180587, 0.930434332422185, 0.517351481278842, 0.03098727291946767], "delta": 1.5138025530833988e-05}, {"inputs": 80, "activation": -0.3853014862367851, "output": 0.4048488820678651, "weights": [-0.8859963981777176, 0.157774178586268, 0.8276257882951034, 0.2219609963104827, -0.47007666051904007, 0.14068746343821584, 0.970395942873257, -0.0010076672542019011, -0.8515326816586171, -0.2868936497113647, 0.0787866198441124, -0.7532875392720381, 0.30259637655557425, 0.4579073061654304, 2.2193190354839616, 2.923088956611186, 3.5318917101989915, 2.1224641473040933, 0.8189732877761403, -0.2571684463714311, -0.02453409888131162, 0.14412743424085606, 0.3987855961750994, 0.8153383201123648, 0.4299000765688831, -2.197408256522941, -5.21595991055223, -5.458432267869162, -3.7820381556604685, -2.5266115921140173, 0.033394707699129444, 0.12707444182029196, 0.3004754670591728, 0.38218416591105075, -0.06347600702542758, -0.245663402917175, -0.14849816926012818, 0.4154387258285645, 1.977119586454102, 1.226407967670573, -0.3406515275681837, -0.7602871688906311, -0.342127913649646, -0.001453979076586084, 0.8902111215939543, 1.4717948923993305, 2.3873349054939834, 4.258210708773123, 3.369809862238554, 2.705575532318818, 1.075981859309796, -0.20416664366671866, -1.3235223760187138, -0.5122839278040511, -1.2883806992527922, -1.4130721368959325, -0.22499231421462199, 0.5179316822801948, 2.2047125009938275, 2.149367818239717, 1.7041583451717006, 0.38753303075690465, -0.343220755600071, -0.13646062800715958, -0.0661146438084178, -0.5138762454556672, -1.0542472980957245, -1.365927360390132, 0.3557030660596137, 1.1983268035706003, 0.04705111200903831, -0.16241586322743848, 0.7462356315451114, 0.03466475833126923, -0.6598508092247376, -2.1433010569738826, -0.9430078534999671, -0.7409048287309457, 0.09159269273082055, 1.927843802430856, -5.185310204144157], "delta": 0.0001950303962363158}], [{"inputs": 4, "activation": 0.7958835480933754, "output": 0.6890932442483358, "weights": [-1.5154711678760204, 2.770882337288825, -0.23913867508386233, 0.32969026247560795, 0.5127445892573603], "delta": -0.00010103123859032351}, {"inputs": 4, "activation": 0.4587924144295977, "output": 0.6127276642093035, "weights": [3.289754942070093, -5.407686155173172, 0.4029275686120229, 2.2474450363449447, -0.39525526094873475], "delta": 0.00014683889182663686}, {"inputs": 4, "activation": 2.610945927258046, "output": 0.9315627271797474, "weights": [6.645604896604727, -7.705191853842136, 0.7911188187117755, 6.835646699475669, -1.9909757927566127], "delta": 7.500965211542982e-05}], [{"inputs": 3, "activation": 4.49411100001684, "output": 0.9889488815147348, "weights": [-3.9044204897863732, 5.123585133092159, 9.741560827107984, -5.029452397439351], "delta": 0.00012077757739935631}]], "configuration": [80, 4, 3, 1], "name": "C6res"}