{"layers": [[{"inputs": 80, "activation": 30.423693252472944, "output": 0.9999999999999387, "weights": [0.42026531635071357, 0.06437007683307297, 0.12000718032575342, 0.9943945475005941, 1.182747623011609, 1.669660553089626, 1.6360676025456764, 2.1863897933595653, 1.0571892854905998, 1.1817887987171705, 0.6559186878727088, 1.6055616515818707, 0.9974449470481495, 1.6027999560976505, 0.7211332766755943, 0.21960175603160687, 0.5148609062043986, 0.504145685570763, 1.3006191491176529, 1.6431203027363646, 1.1359216218637342, 1.5118061479347584, 0.4909835403105484, 0.6663031845487674, 0.9718279311692665, 0.5277320146105681, 0.517088470337093, 0.2534993765348668, 0.7744358803373359, 0.3395853106318511, 0.9871030312387402, 0.7556785061738162, 0.8590051960902404, 0.7161864286084877, 0.7972454814995116, 0.7333087187080747, 0.4618762060298832, 1.344134712195343, 1.5767375199369642, 1.2555902601951692, 1.3764947428114778, 0.8186032972637335, 1.2275869677087596, -0.08729714658610943, -0.03675906972930141, -0.20424693544292333, 1.163336682626702, 1.4791456204415077, 2.131220838249411, 1.228125566036333, 0.9361676327997851, 0.7492117054689671, 0.9509780736901017, 1.2057131825657952, 0.8195871969729033, 1.0865771130153827, 1.4901173752621522, 1.1932769967792183, 1.1685613316404733, 0.25902263319597313, 0.33439896076694703, 1.279758780749415, 1.3813722662230192, 1.4348341117893793, 1.373754023122726, 0.5569474463869142, 0.23241847747291405, 0.4116969802656229, -0.021050642317244336, 0.286267714246826, 1.0285429182222032, 1.348551540819254, 1.413520529092171, 1.471020537559877, 1.001891471976401, -0.0662542687915345, -0.29224526857787775, -0.2969510428949509, 0.7644965174515055, 0.7638469243370656, -3.8105741263889135], "delta": -3.16021507309294e-19}, {"inputs": 80, "activation": 26.506885580448085, "output": 0.9999999999969225, "weights": [0.9922216525291997, 0.3717363367366896, 0.4882290907409045, 0.46893192929431454, 0.6401948514215223, 0.20970147035037914, 0.969421349254977, 0.5188707435084716, 0.2647021204825285, 0.8558901573501643, 0.4089125146416748, 1.125375852312263, 0.41113133647837014, 0.7404879218706849, 0.8610820518002547, 0.2971451276510276, 0.7733962453409995, 0.5623900575224161, 0.13402726900215764, 0.5969110456288245, 1.0369200343269687, 0.4406500796340669, 1.0753586712303718, 0.4935344451560581, 0.7594078294986799, 0.8156069417818248, 0.4627124472913242, 1.0648965627140372, 0.46173278310820365, 1.1528645406072913, 0.6190322326338503, 0.41585785184161866, 0.9632817682355725, 0.7314032048195367, 0.6377992484366858, 0.43309644519718504, 1.1065453828308869, 0.9442141645231695, 0.4013720506833919, 0.4091334018560332, 0.9051949762050003, 0.9459126309034916, 1.0269676281620235, 0.8503200138093586, 1.0784377215732175, 0.5304181535689685, 0.681576181585967, 0.3773945871646359, 0.7110368111296259, 0.3402604799858874, 0.6108061611651266, 1.1807074132963038, 0.7147550602895496, 0.8721657368833042, 0.34645444353353444, 0.8519982651204279, 0.5105825375145139, 0.32001358213719966, 0.905030669008591, 0.4516630744439792, 0.6232867259236425, 0.29643191216047576, 0.2288352638781542, 0.3856369285008578, 0.5307840739832734, 0.3144311090399817, 0.7368431513698711, 0.3781704088251926, 0.3574191884599906, 0.9458391654287668, 0.5891339253940804, 0.9000962201591955, 0.5662111957517655, 0.6891795020214516, 0.4184271213233668, 0.9387311219818869, 1.2199206736935804, 1.3334520452248533, 1.694493467476267, 1.5033424968681572, -1.643701773585125], "delta": -2.7890850171454724e-17}, {"inputs": 80, "activation": 24.83102007613741, "output": 0.9999999999835554, "weights": [0.01511238324238288, 1.728660509791075, 2.421997265505904, 0.8171182781316847, 0.043042596107918274, 0.18439733385982263, -1.463600696466474, -2.26207598998476, -0.1298958122604502, 1.1938244996081016, -0.01280595770485921, -0.7705113564489585, -0.7325232371732409, -0.7425375067510837, -0.3564606428630671, 1.317278683823651, 2.4937270452371734, 1.0429231514918254, 0.3671930510245199, -0.7806274025305499, -0.46719470029255383, 0.12941236461418973, 1.5532699924820994, 2.006803180258302, 1.2891145164828481, 1.507248129388002, 1.4387955934606218, 0.9795993085816191, 1.3292182503584185, 0.9741833163899966, -0.06830516944334593, 1.0004937725714902, 1.6081368578294948, 1.2217245495587723, 1.0298540006257009, 0.9640132705015251, 1.1005994220221174, 0.08186613429032571, -0.3086246201026716, -0.502823627024779, -0.7962035245889075, -0.074031224304582, 0.24205672659277608, 1.664046206334376, 3.3122455170782246, 2.6517700432440865, 0.18759492163362373, -1.8956742600714673, -1.3384354456423126, 0.18135346016257603, 0.826303293340596, 1.4001074035071353, 1.5393870502873364, 0.331042083583065, 1.1114641326210462, 1.6183981932659517, -0.18451824130357375, -0.8099172124852149, 0.38470157267236954, 2.188143374664638, 2.229812340166919, 0.873442888677202, 0.18102190161490309, -1.6025115509715147, -0.6662065751465706, 0.6883978812828176, 1.219518296792004, 1.4361268678719818, 2.238171205226457, 1.5610683840581134, 1.4115021789183935, 0.032682552687805864, 0.26848730988302144, 0.28407068330602914, 1.3083501625695844, 2.468746141586695, 2.8050861110950995, 2.076226778785784, 0.9993092451848549, 0.5527459200551755, -3.5539477206630585], "delta": 7.12177116949523e-17}, {"inputs": 80, "activation": 2.6124073877064538, "output": 0.931655841817793, "weights": [-4.826664367086972, 2.9583988503329195, 6.75488623473578, 4.806975196952878, 7.235544632814889, 7.756042620546625, -1.2912059833704874, -8.370502029593817, 0.8252717723444184, 5.809830309592151, -0.16984567880796664, -5.021508538875039, -5.1461439360496115, -3.5101044541758877, -1.0678819890340707, 2.300069437019841, -0.7132283110543441, -1.1160353153990272, 2.274529294122333, 1.2413532505162816, -4.800880482236187, -2.943330721656874, -4.175604332265549, -2.8993228167066913, 0.6580242243245776, 8.276197164876217, 3.7781689269039247, -2.1629361196150243, -0.627380663487986, -0.06961908970465484, -0.9763014488356956, -1.0709216436844016, 1.5044200319394445, -0.4615357576752395, 1.8787188669854629, 6.541843951393951, 3.6625307125422046, -2.176929904332597, -3.63922987088208, -2.9996548002815775, -1.6957827600286917, 1.5933414324577297, 2.5958514303948994, 0.8535266576533972, -1.5165500425438776, -2.365029623155909, -3.0238775134774576, -7.494651683473102, -7.282489637317014, -3.0908422687426524, -2.8297922372373545, -0.866374672628504, 1.6357441951316434, -2.839085329538215, -1.6383887788587304, 0.10434121714430121, -0.12614068664422337, -2.7946971718434477, -1.0578204689850905, 4.823243461867365, -0.010904957145452405, 1.4890000904956744, 6.320605418945947, 1.4546871052683747, -0.9062860378540889, 2.14416690674256, 2.063017688201094, 1.646006101065654, 2.4214339983389848, 3.516524651474275, 1.3806998188025417, -3.1831738704523405, 0.6859969339659294, 1.185344902548258, -1.9201069042272885, 1.8044284054057698, 1.9422218055608793, -1.471488303283167, -0.8748116286903265, 1.6519798123748313, -1.095584894361097], "delta": 1.4896988927171183e-06}], [{"inputs": 4, "activation": 3.553339386200351, "output": 0.9721679241044472, "weights": [-3.6996308309758357, -4.412259294606145, 4.636575531014023, 13.026954749796424, -5.107980102867098], "delta": 1.8118577617791034e-06}, {"inputs": 4, "activation": 9.338116300033235, "output": 0.9999120026890391, "weights": [-6.547582930500072, 0.5018138129449615, 9.531549355844598, 6.828911392877585, -0.5098591427641109], "delta": -5.0268292020625544e-09}, {"inputs": 4, "activation": 0.46090042832783096, "output": 0.6132277610179182, "weights": [-0.8189099442511338, 0.5766174663359803, 2.1760466005877124, 0.09341186807469803, -1.5598859058102237], "delta": -1.8483698327737637e-06}], [{"inputs": 3, "activation": 6.01165455345095, "output": 0.9975559568641503, "weights": [11.237826564229456, -9.587553757305677, -1.3078446603368112, 5.475326656681394], "delta": 5.9587477325273646e-06}]], "configuration": [80, 4, 3, 1], "name": "Mem_Utilization"}