{"layers": [[{"inputs": 80, "activation": 14.838936542309588, "output": 0.9999996406384678, "weights": [0.34938991969288896, -0.09459310479288162, -0.1717075603065776, 0.4902002361510619, 0.40715148663953366, 0.5394051468248604, 0.25770323186795907, 0.8148728509405612, 0.39121218035349914, 0.9812973405384244, 0.15455256190130337, 0.5618274216635408, -0.25154556716448434, 0.46780369365016766, 0.01710087541479701, 0.05649829563398711, 0.5477783508365744, 0.08784671355117188, 0.658712605426574, 0.7076920625600597, 0.3335181607387319, 0.8824109424895923, 0.6349532686820131, 1.0938097363453971, 1.3099688732533763, 0.8477344885630278, 0.9428127916349547, 0.7415909578930103, 1.0162797548220195, 0.6497773792033391, 0.9879846145814217, 0.8486301859968877, 1.0147964379562304, 0.9907005863384931, 0.855500148231949, 0.5896698680941775, 0.25093107082668853, 0.8660372670445643, 0.7584676809342601, 0.507067821846826, 0.8567408676560021, 0.4038842831930007, 1.1373220282205037, 0.09139412331119783, 0.7054040123646392, 0.06855497833979561, 0.5765150452145859, 0.10452551952817882, 0.847094589624296, 0.6021052996591413, 1.0448104743618294, 0.9234218887267368, 0.949388018201054, 1.3866228733539105, 1.2795686739436574, 1.0275670384577074, 0.7744978701710701, 0.35720949690684456, 0.9583399276448867, 0.42547403315115506, 0.7221342762823463, 1.1641107267136228, 1.1230080514976126, 0.843066178016167, 1.0045579299039815, 0.598411835591578, 0.46927321296637375, 0.7532783819602604, 0.3779971198240382, 0.3457580737432288, 0.7185372506831024, 1.0000696370675923, 1.1519555637341095, 0.9646171426427836, -2.9049534863038904, -7.4425960135042235, 1.1477609701980334, 2.317333045684519, 3.1308000497294497, 3.6479665313604888, -0.9215715795845971], "delta": -4.6120646522294126e-11}, {"inputs": 80, "activation": -0.30647189118182094, "output": 0.4239761429803709, "weights": [-0.11136101522756689, -0.6829209862033485, -0.4701731449387109, -0.4018820500671843, -0.1033114731140395, -0.45804998424744636, 0.42603224085447977, 0.14989507578356845, -0.14962425684338973, 0.264009419372276, -0.33463254322992314, 0.24666160074612725, -0.526918466529876, -0.2070853862823623, -0.02802182821074263, -0.48751996559182575, -0.10924271908035399, -0.4155746508681788, -0.6679909884288489, -0.1159073423563738, 0.29188328858650237, -0.24042188194973868, 0.443172777207449, -0.06253773701946277, 0.555801097140688, 0.7282184065127186, 0.15328494261943673, 0.6568267382893627, 0.17724892164688252, 1.1014486206917387, 0.17307442173041035, -0.2849525151859009, 0.48054054205644375, 0.5330584790092275, 0.25481603052161017, -0.16110892051617917, 0.3917989043682655, 0.15582692576138915, -0.3399245444023072, -0.3187765891675827, 0.09069359310409439, 0.21077158895494946, 0.407345667009255, 0.020063925404748457, 0.05589735068838901, -0.5953891720193631, -0.31694037782770385, -0.5346162564614776, -0.11445910331373138, -0.4300078085788574, 0.031944314800928096, 0.44505087567605883, 0.15760980585188583, 0.5710823210194349, -0.18925579562804773, 0.20141422938422715, -0.12269616551634072, -0.30321850764893926, 0.16338445509244462, -0.201243791014708, 0.09974930190852654, 0.023051852000571773, 0.2741154670392848, 0.6811870072980257, 0.5853636929149753, 0.17348557027087605, 0.5079941020800068, 0.013034332517804054, -0.18137329291508222, 0.329579920916398, -0.020720722168210137, 0.29829590592031935, 0.17278918051032202, 0.03465148567142407, -5.502645966408647, -10.972624692163548, -0.021402239344356103, 2.0414467864651504, 2.8508657500922925, 4.340926443305016, 1.286585186256862], "delta": -3.3194014577090865e-05}, {"inputs": 80, "activation": 12.765843463689336, "output": 0.9999971433082128, "weights": [0.5436252692335112, 0.6957338764000406, 0.7366720116633454, 0.3734525734486982, 0.3531727984339356, 0.6773508704752372, 0.2544482112844972, 0.32889703746192567, 0.35877881337085465, 0.7542909096218405, 0.25076083251575865, -0.04193045020071276, 0.4986887696737438, 0.6063447610767964, -0.11773776723241328, 0.08973221753647587, 0.8555112716252158, 0.483733341097225, 0.5755822842171104, 0.37723568989096273, 0.28617757310680125, 0.30061591404554555, 0.4408230513958531, 1.0400079008113523, 0.46190270872733774, 0.36494979413216366, 0.5704601493045133, 0.5491887810932193, 0.8818733043110841, 0.6792212021915666, 0.5017785588660238, 0.5625819181188942, 0.8741683621594863, 1.1802014227229902, 0.8555166992560982, 0.09739275425926543, 0.6358019612326716, 0.7382402756682159, 0.7570610970890925, 0.4755389310825929, 0.1172624582401205, 0.7464490193327411, 0.1335556046763151, 0.3986848108636368, 0.6074756159778655, 0.47953642663146545, 0.25089289334680487, 0.4848750281286395, 0.29893335993684417, 0.3311576768927586, 0.16967619039131668, 0.37608892501679936, 1.0517705464941967, 0.6560192598500996, 0.5175248778045594, 1.0438339020086758, 0.09923847577375067, 0.16064461694867044, 0.10602088407729117, 1.0776681481174153, 1.2146547441938504, 0.9709158443565609, 0.884969359182657, 0.9702756314871624, 1.2926989405324498, 1.0718574680042936, 0.5237048069563932, 0.5752202350983507, 0.7701790543985919, -0.04645120485639608, 0.878134909484503, 0.15182516600933751, 0.5103862669160515, 0.2274912771252098, -1.8884163138065648, -4.5499087706491315, 0.9149375851836538, 2.3829507987311356, 2.0696042999130295, 2.6996461371213885, -0.8353211886554415], "delta": -2.287171502925164e-10}, {"inputs": 80, "activation": 0.2669099014174623, "output": 0.5663341335609718, "weights": [-5.971285722294613, -0.7797156826776939, 0.1405319803737283, -1.5791609555658006, -1.1745433694183898, -2.6585727182001864, -1.6161302453982063, -1.6639707884110515, -5.304527290874677, -5.275428630221611, -2.913597583288511, -1.2685562863561548, -1.4696208728996056, -1.1706288690822104, -0.7904567279334989, -0.19220149435193648, -1.6546934327490872, -0.3166761269932078, 2.3419037043739315, 2.988383213989891, 1.7106177200719743, 2.6500397994610605, 1.2672007064780242, 0.4587609848527345, -2.6704016110799436, -1.4775484749644656, -0.8621784011056348, -0.8438198350760022, -1.1754595377699106, 1.3069572809938101, -0.5316294327932864, -0.6931345525907784, -1.421571606365416, -2.217097846610171, 0.4397317892903327, -0.12162991321539195, -0.5829067569174143, -0.530684256563461, -0.9365335785144357, 0.13143613723045505, 1.5507904521297944, 0.0462507103668689, 0.8577435470656048, 0.9070156760544004, 2.938200162671642, 4.904362939657319, 3.4233697068530375, 4.430995296185498, 2.8600116211583373, -0.0055326605763907875, -2.1288450916530555, 0.24376285876010104, 2.8814884043783398, 2.4931912529389644, -0.0430169633998469, 5.473276753218708, 4.15536049802635, 0.5130211727523973, 1.4819319181485917, 1.4622165953766861, 1.3274459813587471, -0.900720498690358, -3.168170049977617, -2.5116265477770487, -0.049141708704605255, 0.32308469139177215, -1.2204737518376707, -0.4061259813329113, 0.2958817404787466, -0.19061555713227626, 0.0019706956928820523, 0.9381249355652547, -0.20396615594611225, 1.496161497955955, 3.8072034925761913, 1.0507226753264536, 2.013031882905374, 3.999085541587011, 4.489367463435814, 2.727577820714511, -4.165741886113154], "delta": 6.085772331297504e-05}], [{"inputs": 4, "activation": 2.271554889475249, "output": 0.9064936680287383, "weights": [-2.3450049333383642, -5.9570767560029285, -1.2148325397337771, 10.456423571918998, 2.435231378335251], "delta": 8.276682299563765e-06}, {"inputs": 4, "activation": 0.5343032130597494, "output": 0.6304862076283317, "weights": [5.001172043280375, 1.3232495495687977, 3.917358790959877, -6.372388128071937, -5.336363354325439], "delta": -1.3363901507956712e-05}, {"inputs": 4, "activation": 0.4627806167271378, "output": 0.613673608066232, "weights": [3.3540799490838697, 5.492054536559626, 1.406899243443883, -6.062402284300482, -3.193370072774739], "delta": -1.255078433371017e-05}], [{"inputs": 3, "activation": 5.754896716545232, "output": 0.9968427659810277, "weights": [9.826762943648378, -5.772800881166474, -5.3276855652195705, 3.756142586297193], "delta": 9.936654941989276e-06}]], "configuration": [80, 4, 3, 1], "name": "L3_Bound"}