{"layers": [[{"inputs": 80, "activation": 18.26287105337379, "output": 0.9999999882905667, "weights": [2.6758761064869394, -0.01061267768350104, -2.365132203137278, -2.2152137854194347, 0.2993839089184481, 1.8401379231828974, 0.4515425174900818, -1.3329806515670506, -0.989764201176091, 0.47518585421608583, -0.18012285245133094, -0.13899312919858928, -0.5661258934550386, 1.1365536307169108, 1.326819308027002, -0.6312248238494439, -1.2599696891356444, -0.6057274266770878, 1.621306124818883, 1.719813129019817, -0.3548413142038753, -1.292984884172573, -0.45562148800805796, 1.1850768143260093, 1.196252705213697, -0.37947630608808863, -0.9455807970485589, -1.1053273786464377, -0.0730224976451503, -1.2565418873907788, -1.341540366702037, -0.21665205332311482, 1.2786633454802634, 1.0029567522808338, -0.36651254004013717, -1.0448302053401908, 0.8103211799678383, 3.050948990120073, 1.3229718330811782, -1.1762389964900295, -0.3519840373181589, 2.3152063164812233, 5.259255554971706, 2.0903235397289404, 0.006016367557361426, -0.9569849978565813, -0.12801066133340236, 0.11690084317128524, 1.4400349874408551, 1.2484314888935686, 0.8659753190059534, 0.19146656947992247, -0.3271750231026705, 0.2608051355924832, 0.8136649065579171, 1.2280801501819958, 1.0152692619824102, 0.354294604528424, 0.7317831496006141, 1.9270308353488455, 4.096425908751858, 5.000721589615547, 4.407907116372448, 3.705748574726653, 3.8706391367426685, 3.334264747739681, 2.7760295467408502, 2.6988958623108976, 3.1241722915280707, 4.232576971418969, 5.212154278768472, 4.60205262088704, 3.7823869545491293, 4.577911631386172, 5.710585355895497, 5.235003957516546, 5.137588567549256, 3.436387913204849, 2.613224337930695, 0.6606008250707149, -1.1380477392709707], "delta": 1.862239667723079e-12}, {"inputs": 80, "activation": -1.0985464964477079, "output": 0.25001233624422814, "weights": [1.2309132430366958, 0.6422409403074195, 0.8220778812575152, 0.6976544770749858, 0.844489084630421, 0.32080562602954005, 0.8066984483398404, 0.31866637677312765, 0.03064006169529305, 0.6117918307544002, 0.20963295599787038, 1.0253871276136581, 0.30094655712534535, 0.6293200485228393, 0.8212303963518505, 0.2495124233311436, 0.6047707062911051, 0.35250759607587623, -0.029908844789157823, 0.42510509547898534, 0.7583985559954043, 0.23213890225557296, 0.8423365460299396, 0.23858405697108825, 0.5782059386987298, 0.5744993327103062, 0.12228454528490908, 0.6950130000520977, 0.31826971255810593, 1.0043054317431197, 0.3889370266776932, 0.1005012869377042, 0.6883165691782189, 0.48451281116108186, 0.35899156470366766, 0.14467971227101167, 0.8806142495737094, 0.8390229950136401, 0.3269510067752174, 0.3100861018417733, 0.8438039981184764, 0.8362109537813308, 0.7694249376638059, 0.5477036936718387, 0.6150948287435741, 0.012130048525910936, 0.18811763173959933, -0.22704053595396118, 0.006432928482246867, -0.29016864382771945, 0.08603054612058927, 0.7942685020441433, 0.516634138267921, 0.8653113682638245, 0.3802174313498382, 1.126790342223639, 1.3057002782420497, 1.5421212487167395, 3.02125118446785, 3.1498962212626873, 2.452403315527135, 1.1027220868244711, -0.896191850077174, -1.8703290126670626, -1.807952936307313, -1.9692685959883252, -0.24844127424679863, 0.29810253262956216, -0.2669511612242098, -0.12783441305483112, -0.6925365640553085, -0.5866410516500752, -0.9360991060470779, -0.6315096574107711, -0.3669591819942796, 0.48770679113704557, 0.1974920444732066, 0.4189037663088089, 1.0161977782742568, 1.072967872250399, -6.654942826081941], "delta": -0.00019064648970594603}, {"inputs": 80, "activation": 18.908583957040648, "output": 0.999999993860877, "weights": [3.065900526874931, 0.6344481537494557, -1.9426843983542819, -2.8804494857581995, 0.10877675381911014, 2.060408504850155, 0.4134907579942141, -2.1524768940627155, -1.2354795029870795, 0.12377847669292522, -0.2116494710522775, -0.9569474608936821, 0.0032262196532753594, 1.2235700387425859, 1.2363982729565601, -0.7839312686237973, -1.2888543161725199, -0.3724941496286212, 1.6976812848787135, 1.600773950318217, -0.4382249218177986, -2.11381399129644, -0.6986480490681923, 1.2837543269881855, 0.4976419189956727, -0.8552868642675767, -1.3998264078793694, -1.3690236092388135, -0.16490284775676772, -1.2488436275025399, -1.9972587256888092, -0.5485092808604743, 1.3085809749553852, 1.3996016741355077, -0.3826577950626951, -1.6869926962336665, 1.3427905694330344, 3.2812744380173653, 1.4370299265512418, -1.4088770687277363, -1.216852863515835, 3.0249815076889295, 4.9940147593142195, 2.7787254580690837, -0.13870899400969341, -0.6921890833520203, -0.5608626151396146, 0.50030600961712, 0.9946064869947164, 1.1352244038013697, 0.09272738779047093, -0.40028047532790284, -0.27758613130823095, -0.3800484047873803, 0.23452791336337664, 1.5077081181308059, 0.6025406974994016, 0.3853104838426394, 0.06589796712012363, 3.0238996116193713, 5.330967864167042, 5.613014991884028, 4.91119950134599, 4.528528160111728, 4.816866426782487, 4.408844761852342, 3.3248336570701618, 2.926363755676917, 4.028179589283169, 4.499922096705627, 6.133039829387304, 4.395478036812985, 3.6741290026980504, 4.448695559448486, 6.620604144881437, 6.952914951024816, 5.635794010631957, 4.377499841997482, 2.2762651251790498, 0.4472786906298605, -1.032155111075431], "delta": -1.831729696375855e-13}, {"inputs": 80, "activation": 25.415754964358353, "output": 0.9999999999908362, "weights": [3.911996954681174, 0.0894291603380773, -3.1105494314842788, -3.8022616974245063, 0.3188170009860956, 2.5943611948671643, 0.8033674929079058, -2.345512471453842, -1.4742976603529494, -0.038467595655462365, 0.06468044464575994, -0.5794805495321133, -0.2675028479353858, 0.8223236444876222, 2.4776203213595647, -0.13325790060782491, -2.5595251082714605, -0.6051844760341742, 1.7089225068964298, 1.9432525996552223, -0.3456173704544147, -2.2299051143328987, -0.9800159852562257, 1.5627328002354604, 0.8677616276580833, -0.40416551298610653, -1.3047382681597723, -1.1869724464556972, -0.7220371992793061, -1.0950851114127722, -2.0364594622887617, -0.581300591458354, 0.9831971243580322, 1.0262056978939553, -0.6893760163192452, -1.2558184567116009, 1.9616336184704486, 3.8095412599739897, 1.8470512098986778, -2.149060199753735, -1.0656942276902077, 3.235292161590988, 6.648396999952251, 3.4771970815558455, -0.06198679026475215, -1.3197335356623738, -0.5461237453449176, 0.6762621256041265, 1.563955514250163, 1.373779842203678, 0.47434426869254964, -0.058239335639772655, -0.7091734590886881, -0.6964414986740308, 0.2619634843977361, 1.531176137785429, 1.6097168364459618, 0.9414660317643502, 0.6690592976285035, 2.8277491582796963, 6.465603973821581, 7.081719030505964, 6.330433081689592, 6.208092704630404, 5.44100902913935, 5.711844031734516, 4.843492248537706, 3.766495285254115, 5.399821409236528, 6.298028139170368, 6.861900133866591, 5.981962186068186, 5.155592738453802, 6.3252063997715835, 8.353014539292325, 8.668478774681969, 7.032727587831407, 5.092714598099426, 3.6579474331784287, 1.1882996120226372, -1.0098421295285311], "delta": 1.2255730513553835e-15}], [{"inputs": 4, "activation": 18.108166289968274, "output": 0.9999999863314233, "weights": [7.4507824809945795, 2.3378984130524003, 8.751529569562498, 10.435706623030393, -9.1143556866504], "delta": 2.506608667949409e-11}, {"inputs": 4, "activation": -2.7541978698295475, "output": 0.05985000760562784, "weights": [-1.077536803012058, 3.6847230902743564, 0.15584219191582047, -0.5915098171060358, -2.162291153220782], "delta": -3.518602192861285e-05}, {"inputs": 4, "activation": -2.8627331038318493, "output": 0.054026846777178665, "weights": [-1.2145090944220285, 8.894552432636429, 0.2441291449250775, -1.1323381633843357, -2.983965423680453], "delta": -9.973472541989569e-05}], [{"inputs": 3, "activation": -4.261909763939852, "output": 0.01389944029792862, "weights": [-9.626129852184604, 3.2824054701349503, 10.243347721415057, 4.614161058100575], "delta": -0.00019050914600273063}]], "configuration": [80, 4, 3, 1], "name": "front_end_bound"}