{"layers": [[{"inputs": 80, "activation": 19.187242707472848, "output": 0.9999999953539234, "weights": [-2.7620323719047697, 0.3963995654642827, 1.5215676378505605, 0.7230511996065802, 1.07273223754387, 2.924287736098538, 2.1715111494654544, 1.6944998983060398, 1.4505909976159534, 0.1693034894055395, -0.20673262217205413, 0.3925612375614506, 0.9332338986869523, 1.0931095680206873, 1.0093560873389609, 0.9479381837395945, 0.4387952956598691, 0.28300238375773157, 2.0679552640452306, 1.9263594463205165, 1.1999537610557842, 0.1942370301688885, 0.7871631635756577, -0.3087192282155133, 0.3673520833556718, 1.1560275834613178, 0.4697279358855036, -1.0410412852856599, 1.02391730433577, 1.1888473561656185, -0.05094926471772634, -0.9452245889584932, 0.23459239350580427, -0.1255298472453505, 0.003902151303547555, 0.9441065546610742, 1.5674171425240588, 0.6269950749016258, 0.6717546478336309, 0.7828935075021534, 0.41676051640388706, 0.3994134516463311, -0.08470743544436887, -1.2831059061964685, -1.8670518657330892, 0.17076306535830538, 0.8254438366253982, 0.5338871926039035, 1.892479914912844, 1.0246230591396397, 0.07373330618024125, -1.031646368154413, 0.39998955485105137, 0.48669197175839, -0.6261534605047036, 1.0960188558900363, 1.8101320322251657, 2.2422318432210364, 1.6677586646992353, 1.844971172617704, -0.8605795009742887, 0.7175895748091738, 2.6621713419194686, 2.1696732242836863, 0.6389249668145746, -0.3550251194952599, -0.1213339321628284, -0.5336566666764242, 0.1079949254497148, -0.07240582801569265, -0.19917214361726535, -0.3628403199444292, 1.6845693435929487, 1.5172878920996067, 0.45224873463497445, 1.76176805932749, 1.0014047830754476, 0.05056286072757292, 0.7029027711336696, 1.2426801147393827, -3.25005047703397], "delta": 9.648806074043008e-13}, {"inputs": 80, "activation": 13.111753959893514, "output": 0.9999979786722918, "weights": [0.8925924128532365, 0.9453187931916972, 0.799817715507007, 0.43854763127607216, 0.4427172341920789, 0.11616964363151619, 0.019885909563968653, -0.7424576526848036, 0.5492831364960582, 0.2889085026153746, 0.741690812029566, 0.2923564911927011, -0.2164789819532666, 0.03915919079487523, 0.19267422585986588, 0.12053408031832469, 0.9966775124685923, 0.07844618823865475, 0.15999943703006236, 0.33187289615771254, 0.42307395283238747, -0.1629212291108517, 0.8655079153023382, 0.48125534456732677, 0.6098261722489142, 0.7156960423921602, 0.17659101151642823, 0.41161730474732916, 0.7401112589616315, 0.08024988758490623, -0.0924984631961441, 0.9639975953124277, 0.8129906228206043, 0.8871887029215288, 0.5369905108237826, -0.015124239687695542, 0.24723920290471016, -0.28883151358808434, -0.22898243624614747, -0.06679541977174577, -0.24402852572232092, 0.03557531374769091, 0.32500622961031644, 0.4316890253094668, 0.7666228319142828, 1.0233702552314894, 0.6674980141286831, -0.4576111944939691, -0.6094763749321818, 0.07699586763637165, 0.5279986435782867, 0.46271613107294546, 0.0506388174282893, -0.052931610208524785, 0.15150400034357145, -0.03198728997092353, -0.40403018375401734, 0.26144635709475544, 0.5677974225159313, -0.03111222932006628, 0.48706073618566137, 0.7715334627712426, 0.23594746868980493, 0.1773388709376938, 0.3136465212749067, 0.7489907154059469, 0.3814181280391405, 0.6467575849434648, 0.2454482460472445, 0.6266993611666, 0.40050074936503954, 0.6440354740158044, -0.16252318830704207, 0.5652386584969045, 0.7298153143365005, 0.09489346639193946, 1.4491027119115187, 1.4205219721088134, 1.276033949154603, 0.740373579217392, -1.8577509325213202], "delta": -1.7001317130877106e-10}, {"inputs": 80, "activation": 0.4131629365842403, "output": 0.6018460486617966, "weights": [-4.746380445161961, 2.048520557336219, 5.748474304351683, 4.818261968456904, 6.6747916132176135, 7.5289331689292185, 0.3251698546763063, -5.969085671973281, 1.919753131950756, 4.602363168075934, -0.33680052170548974, -4.179284672985559, -4.140169573473915, -1.9809404375941684, -0.718302685161046, 1.7243747098320754, -0.9443883346705028, -1.4232555902896422, 2.4474170133800768, 2.097644856240895, -3.667717505825092, -2.791999616700876, -4.349218207544076, -4.1910481419483565, 0.30159238118491905, 6.714017349574815, 3.5366958803855293, -2.680183034686838, 0.12280949616334275, -0.13895816299732436, -1.1726460608132283, -1.957127036507215, 1.250373882540018, -0.764680356195138, 1.6294066358039618, 6.043156636086474, 3.0867275488742107, -1.4563012999088554, -3.04623494810269, -1.7532566484248446, -1.2025272333517156, 2.584319994662442, 2.187765954537399, 0.28536500539704013, -3.6710475897486723, -2.846785852588433, -2.458372072380689, -5.990523837354206, -5.820237188099525, -2.691687301271988, -3.0879719605966582, -1.2687104082172815, 1.4875569833986062, -2.2508200514244816, -2.181082709460301, -0.6531575946300243, 0.07103044775170372, -1.3233144207525842, -0.977404750853119, 5.014486935085728, -0.7455376192755147, 1.824999151195274, 7.025862738355702, 2.874907884465619, 0.7386201654395083, 1.4455739456873353, 1.2388186250610251, 1.6930776302988135, 1.6108384683507013, 3.377749199988737, 1.820998859937961, -2.9035436322457118, 1.3741900806800047, 1.5189643112320386, -1.6832140872626178, 1.5694543143643889, 0.5929258512424134, -2.753111192958354, -1.384540267023164, 1.348604047283898, -3.2076654631192896], "delta": 8.702079852916624e-05}, {"inputs": 80, "activation": 17.151058961769376, "output": 0.9999999644049408, "weights": [2.291241199939366, 1.536251236103246, 0.9926428799301045, 1.0398848172504371, -0.5799267832078765, -1.6506406299924854, -1.0067723792006997, -1.208512991105251, -0.15295217121227336, 1.1928450880861405, 1.6579531258257212, 0.03191189411993507, -0.43776725600322547, -0.49836440887432243, 0.4023897524689598, 0.5329312268168982, 1.5369978297878037, 0.501684375133002, -0.6081310658253594, -1.2905712480086473, -0.05360597750485836, -0.009897946999320032, 0.5469248635051944, 1.4367123511074396, 1.2574962926955227, 1.063354021579846, 1.1420532780496868, 1.6678047637396551, 0.7839436175755189, -0.04639352326556185, 0.7568968514642365, 2.0072049157282534, 0.7686972974137739, 1.0923310104338615, 0.8857252151999403, 0.09166711727738663, -0.40535522392986695, -0.743406617976713, -0.3203086561970961, -0.48159211031825433, 0.24787773187869658, 0.7484611630564648, 0.883999168384195, 1.8367793764047329, 3.197644099097509, 1.5532831297228669, 0.006611682115760671, -0.7084944741367109, -1.3793956184454705, 0.45129675748793946, 1.5515684326230408, 1.16965452220558, 0.14302439132987657, 0.6715873633691616, 0.9144955202361711, -0.07843528532889675, -0.43386032853046885, -0.7560474790239626, -0.027310676497658483, -0.4529603191234669, 1.775883038536568, -0.06621088048636117, -1.4814177643590452, -1.764077948847399, -0.5416734038329083, 0.6718306494706475, 0.8275615721613466, 0.7567619001715064, 1.4065924982847606, 1.6405679636388857, 1.0235774107516005, 0.15045873450915237, -0.6716933968256197, -0.16203875718101485, 0.8439194909793597, -0.0372221022315777, 1.514973303771695, 1.3888540803555762, 0.6454263714484305, 0.8820307054550238, -2.1948571667926817], "delta": -1.1184710244322527e-11}], [{"inputs": 4, "activation": -1.558569296291278, "output": 0.17385203955170161, "weights": [-4.439242791283546, 1.617027969637142, -6.777898302399923, 4.330000942345006, 1.0128590050066046], "delta": -1.8472993030283652e-05}, {"inputs": 4, "activation": 2.3472918187280296, "output": 0.9127187260308539, "weights": [6.603633030674436, -1.865656230610641, 8.641087381017263, -5.419161390596543, -2.1720933782890723], "delta": 1.7625072467390407e-05}, {"inputs": 4, "activation": 1.2024821342793839, "output": 0.7689660470531191, "weights": [-0.38201739678013436, 0.8789782245926667, -3.5250040533150995, 5.709577015950356, -2.8825969621874488], "delta": -2.4295856528890207e-05}], [{"inputs": 3, "activation": 5.306880542267271, "output": 0.9950670873388406, "weights": [-5.31178214813845, 9.137222167316029, -5.647930071831458, 2.2337271049358542], "delta": 2.4213591664314612e-05}]], "configuration": [80, 4, 3, 1], "name": "Mem_Utilization"}