{"layers": [[{"inputs": 80, "activation": 8.557965787418732, "output": 0.999808027375815, "weights": [-0.2666034075844707, 0.512072592743649, 0.1458031608422526, 0.1831295383553656, -0.15524620514476292, 0.4439816604726212, 0.21302670030012244, -0.06201347808501121, 0.19743969691888316, 0.3178737808179769, 0.6005759085596506, 0.14862074419955046, -0.1689503890015865, 0.24863733460564497, 0.6338004949021977, 0.5090887511751334, 0.5647687135338919, 0.021863927514261, 0.5377104218746299, -0.022273582786749038, 0.38902461533509736, -0.027531820129256045, 0.6709651745234511, -0.016222329605569335, 0.25374403866852974, 0.20634008725093395, 0.16365323642451124, -0.28167130554272063, 0.31096713189395964, 0.6244245299639859, 0.45764402702205076, 0.3210802485766101, 0.4938496719689733, 0.40041174667268564, 0.22996207193640364, 0.0958845030607993, 0.5890805326546062, 0.06648289279153238, -0.1704599015511082, -0.10730059111485671, 0.3613702094348245, 0.48688632224535466, 0.24050930858609035, -0.10257243030866903, 0.17860921303204855, 0.7746260833896574, 0.47320290083426264, -0.1036979355684879, 0.5693964704007319, 0.6155616779471267, 0.7724239758988078, -0.06896562214498136, 0.4070229517147223, 0.4601035115955358, -0.08941825459439227, -0.0879552712243632, -0.0288550471761488, 0.5613716404227665, 0.1780842739427525, 0.31710894394201355, -0.23819536348993842, 0.2457168645551083, 0.3277816101488716, -0.1269683378302756, -0.21795501110736493, -0.2653251347644931, 0.11122602187915571, -0.20892163219635693, 0.08466105253522693, -0.29857651015548625, 0.2054311590993125, -0.2734446849949191, 0.601026756821297, -0.09720291709074609, 0.005764606590514803, 0.5362339280892824, 0.08712648754045357, -0.21502415826301663, -0.03162021761436631, 0.08356421862261612, -3.0846673535445217], "delta": -3.7531904012209483e-06}, {"inputs": 80, "activation": 27.647786661359433, "output": 0.9999999999990166, "weights": [0.6834730703772742, 0.802482795970594, 0.7597344456866011, 0.48449972459768076, 0.7348208011516506, 0.6447379742937362, 0.7032743777743552, 0.050819961781488954, 0.880449835536455, 0.2504917120610825, 0.7510429664142417, 0.5797663286478196, 0.25651926108483103, 0.529509435996373, 0.48860756711891973, 0.128597664137297, 0.8202660975939782, 0.17583644251719666, 0.555337593064475, 0.9315787352154264, 0.8050037774990054, 0.08541048621461798, 0.8388462363259193, 0.365077716701257, 0.5604780922671682, 0.698786423788073, 0.13802888290940443, 0.31600122228840183, 0.8375741110477135, 0.1541514139679435, -0.011157079505266987, 0.8027858557782754, 0.7870594093189291, 0.8694908489801011, 0.5511332324123582, 0.11032020445207967, 0.45211358094443577, 0.049421834602073444, 0.2321392472493618, 0.37792193028831295, 0.030947569970255395, 0.24124086950187423, 0.35636055294168456, 0.16028670697636582, 0.14263539150732957, 0.7432278099375818, 0.906826811140052, 0.16248704298171224, 0.030457481155125532, 0.3383827104320423, 0.442511739070427, 0.2607677108971046, 0.05269821884594501, 0.08650959679911448, 0.030135139597175176, 0.12537102976797754, 0.03604133555362806, 0.7838489715295173, 0.834916076526471, 0.08209174040043996, 0.31191616081460866, 0.9182872495872196, 0.6952221621374236, 0.9519064806331693, 0.7953831603769032, 0.8060076871562439, 0.33076211894886903, 0.5718182281396197, 0.08634943789602766, 0.5151803768559083, 0.36978066125269754, 0.762609505894844, 0.1555265925139533, 0.9214310120456697, 0.8126109621863823, 0.01831509709268649, 0.6526632721785555, 0.6375761416949866, 0.7377678635451594, 0.4995572225668379, -0.3057686568930089], "delta": -1.6650444615858728e-15}, {"inputs": 80, "activation": -8.40309581725157, "output": 0.0002241220105639808, "weights": [5.445821388536511, -2.324509545469263, -5.618603795074503, -9.774078685816457, -12.781658037192368, -10.569244707398582, -1.2078507561841123, 14.06326971205476, 1.5225229886244973, -0.5224251539058146, 4.718795692890311, 6.093598697438589, 1.847447491862038, 1.2473933690496677, 1.765494860848907, -0.38393170483532857, 2.1185514737266247, 2.300646918725253, -3.0190890761010087, -3.0423403214714284, 0.3815919922562115, -4.728632132175041, -8.097446826339086, 5.601788422072548, 11.645741004929926, 7.3106515358488515, 4.8307438339906215, 1.3675617445568669, -1.9449776572492206, -3.886462855067557, -0.36891123039714024, -2.0893497463048107, 2.2435807518254482, 7.654969561017885, 5.368130958178007, 0.5778402617139081, -1.9131531445851577, -1.7821869590839854, -8.519660845794336, -8.290738401900635, 0.3901789234216829, 3.8240979552688668, 5.147538644111413, 1.273627394204703, -2.345023692350217, -3.652774350900122, 2.116174856135791, 8.62764150350716, 8.230521410902488, 6.040269351005307, 3.8423296835770158, 0.8128214892019671, 0.9010506165494957, 9.76052399582846, -4.550760098623686, -7.069227524734945, -1.7552403825338543, 8.889358566449348, 7.135520418518723, 2.5353433270557377, 2.2972923074958747, -0.6417161154029655, -6.256914197222329, -3.804563347894988, -3.567702292367419, -7.589055911188619, -4.637601774734594, 0.49562782161062247, -0.9659138451733397, -2.691865024483767, -2.432957518397539, -4.649359571862542, -7.550569075854139, -7.204599289447748, -0.462847589032956, 4.42463373387395, 4.041257726490507, 4.989249719383876, 3.23703501069828, -2.0144906861115506, -9.389392834608113], "delta": -2.4746245695096714e-05}, {"inputs": 80, "activation": 30.37184555701684, "output": 0.9999999999999354, "weights": [0.6811149418864109, 0.6924423606397644, 0.8024867499231099, 0.7644192784454676, 0.07142128423659504, 0.005888195930098718, 0.8177057173062793, 0.8832071433139105, 0.5412369301549118, 0.46482940403235185, 0.7532395279072234, 0.19258604159605563, 0.5812862843833848, 0.5192230532581652, 0.7879774777959877, 0.22785830491543313, 0.6104277617728806, 0.3795657129216991, 0.3735498595380011, 0.34348223130158245, 0.5931670366646564, 0.033061570359179386, 0.01337534452788525, 0.656394377390958, 0.6568148946518343, 0.8376234542677301, 0.7397218659212074, 0.7656142962698118, 0.9774381034370271, 0.014735825488939817, 0.48732251351927636, 0.7892331891823227, 0.3107978427020712, 0.5850023802708033, 0.5594350066708571, 0.3893851793829524, 0.15695705414630823, 0.14163886341535306, 0.878224247720624, 0.7179786612259267, 0.7147524015737952, 0.9175735422026112, 0.5071845098730617, 0.3401789755250217, 0.5837063247510936, 0.37965327614742184, 0.4959387247775729, 0.7271901151019944, 0.3188503418958401, 0.9447321146287457, 0.8562257184624078, 0.1935008242446569, 0.013571307291798592, 0.99379598540405, 0.15601188833211413, 0.2885101169532822, 0.7420311076763441, 0.5719612057063264, 0.804622010608953, 0.09584559871193703, 0.7369822841540565, 0.0332557582468515, 0.1472534388757181, 0.5983752486915522, 0.43767277436485896, 0.23625829673680768, 0.1549906786591477, 0.1737057865676548, 0.7154542501453183, 0.9245375392203481, 0.2539820641863595, 0.01628584820990119, 0.2511393083185301, 0.9310110322999556, 0.7006708400470911, 0.10166568475414596, 0.6891686608384481, 0.40771880589081333, 0.10357236189428667, 0.7741301252519138, 0.6535659726619868], "delta": 4.246167404173744e-16}], [{"inputs": 4, "activation": 11.451760216179018, "output": 0.999989369367297, "weights": [1.4510428649819924, 2.7126638123663858, -12.112312540371576, 3.202503068665125, 4.088544357976039], "delta": 3.4576414510080766e-07}, {"inputs": 4, "activation": -3.5922975223304503, "output": 0.02679713639924017, "weights": [-1.287049467408634, -1.1487680391442885, -2.2506115143162986, -0.6652293745925629, -0.49059856401285373], "delta": 0.00019739087222999508}, {"inputs": 4, "activation": -0.5875828129024633, "output": 0.3571896612607342, "weights": [-2.2780201342714936, -0.16926823486758016, -13.005938490303992, 0.7966795256362649, 1.0824158922432934], "delta": 0.008456942597853033}], [{"inputs": 3, "activation": 2.459716168452256, "output": 0.9212690783178447, "weights": [5.698570811544077, 1.3255105993134795, 6.450942186462731, -5.572446988881298], "delta": 0.00571053984220435}]], "configuration": [80, 4, 3, 1], "name": "Sys_Utilization"}