{"layers": [[{"inputs": 80, "activation": 27.40499943855883, "output": 0.9999999999987463, "weights": [0.5429934662236133, 0.09952818408097659, 0.002331506884469481, 0.600315251944819, 0.4691078557746249, 0.6173603481822544, 0.2415514158290244, 0.6857440179490782, 0.2200744574884033, 0.865731499903364, 0.13893406316172754, 0.7023479576204789, -0.03716915760216047, 0.6771730263364504, 0.1825856865042598, 0.08100033560963946, 0.6090105126409461, 0.2095072221669419, 0.6421529973541252, 0.593659616607085, 0.22334386667527736, 0.7501447955379175, 0.4070434141288646, 0.7824361010949452, 0.8794936120302588, 0.35232203711612614, 0.4820513509607089, 0.2721549067193786, 0.5289008250966234, 0.03193994808204769, 0.6355918187060711, 0.6198381466871842, 0.7087754239090877, 0.4891880963753232, 0.46665724455885726, 0.39806952233557935, 0.13010600076531936, 0.8089361692241308, 0.7286191914541017, 0.4557907297079066, 0.8013564087999159, 0.25874873176022145, 0.876837420179632, -0.042690517172787136, 0.6441860492632971, 0.13422487276957315, 0.6486856353538633, 0.17648876699709712, 0.898200782019571, 0.5390128968164715, 0.7942060488113555, 0.7740075420161692, 0.6465779440391701, 0.8520407679668401, 0.7947767255391759, 0.6305807658281826, 0.41672355614282985, -0.0011687320266732528, 0.6208038776551751, 0.027250868934322672, 0.2089828849416358, 0.6008285329911628, 0.4702099420933253, 0.11548558973175609, 0.3636978265568879, 0.029550242722933988, 0.013527298371556345, 0.38579425219111485, 0.12235081449601108, 0.22518296983225836, 0.5992812055048411, 0.8658048867231639, 0.9246133444452599, 0.8805823181183056, 0.5567703167655771, -0.043188153796278765, 0.4495920606333324, 0.1719021421866383, 0.7832027671121501, 0.3524935331771013, -0.4862306057818323], "delta": 6.101998773944962e-14}, {"inputs": 80, "activation": 3.962831082490073, "output": 0.9813453882775433, "weights": [0.328977273117655, -0.6018120916591702, -0.0976964447719838, -0.5820117179276756, -0.43966378746527635, -0.6652890598847915, 0.6096934828508175, 1.3915460615445494, -0.07817109671234151, 0.23393761330077759, 0.24966392802200027, 1.5285712530627427, 0.3349126187738303, 0.7325110724210586, 1.4059878893362951, 0.3896243479062309, 0.2073328198202666, 0.43135633447400473, -0.2795367840569357, 0.2660030949653465, 0.7696377262362588, 0.5631868320475848, 0.8591509393951301, -0.11712339936077923, 0.5757821351802799, 0.29059162676307737, -0.6769049497838737, -0.1498604054770793, -0.5156812888439175, 0.32754594680941146, 0.028039349283742042, -0.20173696398143726, 1.0438614125712686, 0.7227125304474091, 0.43170117273231606, 0.40403571914001035, 0.3690419188418742, 0.2284487857756043, -0.12837189149555756, 0.07754254123990793, 0.42876350675712993, 0.3664265786051456, 1.1186748814257181, 0.4055641559902628, 0.20147792432476772, -0.2645238735864497, 0.40404446357034646, 0.5446743233524707, 1.247099520346904, 0.6224239135488385, 0.14200360498225092, 0.5343847086953597, 0.24185741842592623, 0.8607512747143985, -0.9155395663489121, -0.2972040014772923, 0.0741133302393469, 0.4232653129824384, 1.7256857047547045, 1.104795851325274, 1.426850489019875, 0.19983406706998882, -1.0304169758262676, -0.38892319685145105, -0.48198286251802697, -1.3349363615707845, -0.04874588011965482, -0.12162460013570608, -0.721864649950503, 0.36688991735512094, -0.17256630343189575, -0.003869267212343458, 0.320226453736666, 0.03584187204168342, -0.1361979790952776, 0.2512264821767985, -0.8809221522832266, -0.2621588857832918, 0.30107327131393674, 0.2760412197076678, -6.1275866809272275], "delta": -0.00694535021518483}, {"inputs": 80, "activation": 31.382323008296094, "output": 0.9999999999999765, "weights": [0.6950115820564778, 0.8478755262781486, 0.8751525680736908, 0.4713625492772675, 0.4215402279129124, 0.7686406178852607, 0.2641745753799898, 0.25115451682349044, 0.25671551975453577, 0.6913464200408929, 0.25956427001935434, 0.08802179899072916, 0.6891317925410195, 0.788753674320612, 0.02599332180420267, 0.13295730131088435, 0.9505226489020928, 0.6578440028523409, 0.6719678122747053, 0.41153000288223646, 0.3262537785714437, 0.33092765868123925, 0.39611099261120025, 0.9295754389962156, 0.24128229105043403, 0.09023643005488917, 0.35079509754333893, 0.3367040793998545, 0.6520508773541245, 0.3427837802890759, 0.37128410839862275, 0.5133386511240148, 0.7648612523196155, 0.9242516456843124, 0.6822117211798137, 0.06882076186478016, 0.6624118226067518, 0.8152851738295389, 0.8652018965476366, 0.5733663540500092, 0.21739409631297157, 0.778909396753545, 0.07890336493889573, 0.43778458523232805, 0.6954178010426366, 0.6673741171422353, 0.44109196453278865, 0.674867632600404, 0.47591102792131273, 0.42358596458826925, 0.11863006549500363, 0.3839912630706184, 0.9549126026301636, 0.40179492598470945, 0.31071266700142613, 0.920006828566739, 0.01827416623951595, 0.08110815476499639, 0.040552652578609016, 0.9543137941830986, 0.9907171095746117, 0.690238901277349, 0.5196552196220157, 0.5344815524872797, 0.9182457372361253, 0.7468676589403022, 0.28498141694377244, 0.4013550174196204, 0.7093039134288605, 0.02237432378179009, 0.9558391969763906, 0.22394947028767345, 0.5120770902918446, 0.319928494189678, 0.8150629099272919, 0.9962023180421383, 0.34206305773083406, 0.7186517032204859, 0.27156183055382976, 0.20946055986170423, 1.3461662198673274], "delta": 4.806560504536463e-15}, {"inputs": 80, "activation": -13.136049369658664, "output": 1.972810578310474e-06, "weights": [6.590164540371247, -6.2033168039650874, -10.313413391984836, -16.356705428573566, -18.492055508826255, -16.617025658311494, -3.4151592733812395, 20.20897182318009, -3.559327530858997, -5.660368234979143, 5.4659363989141525, 8.8301166311023, 2.5499199161447565, 2.1962172154543476, 2.319455649784664, -0.7618864006626608, 0.28471942093040603, 6.442499283271071, -6.921195119512113, -5.895084442392982, 0.7500440381440613, -6.3406093801966374, -10.734977857558754, 7.387779164738556, 14.453521943827914, 11.786238943168922, 10.695830872230374, 12.624584770641043, 3.410980113524693, -4.885742987429124, -1.5502234022345218, -2.214852110783565, 2.3456141253937846, 10.215995511637242, 9.349900991914799, 0.8360401211733267, -2.4626979862030374, -1.1840203491487304, -10.073728440256561, -9.376608126527398, 2.2284369556693453, 4.009376342153473, 6.979310391236008, 0.7548326125076734, -3.683250837460333, -6.51579632777942, 0.6830333711992008, 11.416456672901383, 11.494203449229891, 9.36132208285736, 6.752321694084767, 0.7930426756822766, 2.397568638165462, 17.021619212586327, -8.77657969505432, -11.254067030070447, -1.8958104638727535, 13.000179226908719, 8.249502334855807, 0.7027808038767085, 2.3828427444996363, -4.1789339369463, -12.722039752526264, -8.427906457682408, -7.057301112548925, -13.34912655713133, -7.291884515890751, 1.5170864945594966, -2.242600286090967, -5.300154079788152, -4.054825750177306, -5.472927572571873, -9.652815285206238, -9.236035688463183, -1.1180646916262602, 5.609407177775986, 6.067927155929789, 11.275990838947529, 5.407782783343417, -3.5982062153990158, -4.2849141837900415], "delta": -3.231139595492746e-06}], [{"inputs": 4, "activation": -2.8935169820389683, "output": 0.05247497385089431, "weights": [-0.3066620378463799, -2.529434707251592, 0.18701063230493845, -3.144357645175264, -0.272260993322715], "delta": 0.009764877994021674}, {"inputs": 4, "activation": 1.0021342742742425, "output": 0.7314779954297242, "weights": [0.6158616481235554, -3.868070446411158, 2.2786673972410467, -17.730419075483514, 2.083163636314126], "delta": 0.0906427339732927}, {"inputs": 4, "activation": 15.04072829499223, "output": 0.9999997063063409, "weights": [3.2181361759235894, 2.7140852644610045, 4.65403794622797, -17.028431477251836, 4.50513282484874], "delta": 5.8442536801708565e-08}], [{"inputs": 3, "activation": 0.4153825397426174, "output": 0.6023778059303442, "weights": [2.064617711669008, 4.8803663256429655, 2.1370325887817483, -5.279022656338359], "delta": 0.09523798475410347}]], "configuration": [80, 4, 3, 1], "name": "Sys_Utilization"}