{"layers": [[{"inputs": 80, "activation": 0.9091790013750172, "output": 0.7128321316649394, "weights": [1.4427226686218786, -1.1940658230325774, -2.40270630479687, 0.8636291521135188, 2.1319014348864824, 1.7869845138306626, 0.9137912961700118, 1.4004026714429516, 1.4446198277063331, 2.2171840348099416, 1.1065492068181544, 1.2569934828415947, 0.40846502339027346, 1.0902147502023407, 0.26161935572385986, -0.4841480613734612, -0.5454891162473322, -0.5975293391093557, 0.39402637430910303, 0.6502061710904328, 0.4723244631642517, 1.0788213058937626, 0.8136247116726668, 1.2564301947428662, 1.2678285645154632, -0.6661605174924111, -1.8107223068213878, -1.5710443734013244, -0.4380222299706444, -0.2163624481053693, 0.9282679906276134, 1.4756416425528274, 1.8174816175421538, 1.576038078366053, 1.4491216871538233, 1.10144798340425, 0.3405689955665886, -1.5901987312405124, -2.7340435975066253, -0.4247907488573061, 1.2099776449376112, 0.6861968822251084, 1.312332133954816, 0.3759794800711691, 0.98789663754325, 0.3044352798103319, 0.32040220896253313, -0.596411300834445, 0.1785595049752104, 0.24110057776716692, 0.9341797263902751, 1.0897940852137595, 1.2925503837380792, 1.5474866140828025, 1.643547091190639, 1.7081790088715998, 1.355056510545461, 0.504174690699595, 0.478758667602655, -0.42914956561867945, 0.378812675441126, 1.36006472261662, 1.253171104546835, 0.5698122115480352, -0.09678905593094632, -0.6011640911057244, 0.16791529273759703, 0.7898848294721134, 0.34289435341181324, 0.384865258980049, 0.8499423190124982, -0.4620138002992337, -1.8228435395237494, -1.8561573078563958, -2.1513010899009313, -1.3629505378754596, 0.311468431422871, 0.49124528261677664, 1.154926735265022, 0.7882331863055347, -0.2838992681419834], "delta": -0.0006712238715184167}, {"inputs": 80, "activation": 2.0750260260372424, "output": 0.8884520391539468, "weights": [0.02064213219203557, 0.011569333948237592, 0.4579042262359931, -0.17398494710466042, -0.22745790332995255, -0.3425541957818468, 0.6893530248147586, 0.287819862713844, -0.26680206195896505, 0.21771772141036158, -0.12259156957225484, 0.7862457661229328, 0.12257345267715698, 0.4489341868120633, 0.6669829047194704, 0.19819968186364478, 0.7351918083727217, 0.47825884835668336, 0.01192927982465959, 0.4297486988503017, 0.7732784454427215, 0.1829853742968067, 0.6740535305195465, -0.00783599529128182, 0.35280366200609525, 0.8920147187521311, 0.9129137050560158, 1.3150930082186778, 0.4803068619750314, 0.9408577195157611, 0.3149813803943636, 0.0333772437297439, 0.6621157071062098, 0.2647803468594139, 0.11213946890507023, 0.0498120860828628, 0.8175172984736989, 1.2539920860530644, 1.0192318612354754, 0.4283700614871003, 0.5370872196873276, 0.548470672612122, 0.6286817980880028, 0.39846638023769926, 0.6598021918226704, 0.4262180990022665, 1.0969356462272946, 1.3023033238746624, 1.5689902244838996, 0.6001213302648277, 0.4221046184396816, 0.8048854026444499, 0.22920990942115588, 0.4050495150682733, -0.25570284625137024, 0.32642016222191655, 0.21237549193214972, 0.22263617391142942, 1.0816722076332543, 0.7724329485409392, 0.5621264770196533, 0.041536520762862225, -0.0880016440779515, 0.16992712561298337, 0.4206484467424855, 0.11963759669219134, 0.42055579686393957, -0.008240605376496096, 0.007580028676050482, 0.7019966156526657, 0.3204724352715495, 1.019797662805584, 1.120075196364423, 1.3149680289451626, 1.0231136632914464, 0.9769311689128105, 0.09917972987545981, -0.03422341355569068, 0.48259954046880926, 0.5801186899247485, 0.14871717073147975], "delta": 6.082823387971005e-05}, {"inputs": 80, "activation": -0.4585204622599038, "output": 0.3873368699717738, "weights": [-1.0943999491246976, -0.12922046123082298, 0.28985951381044717, -0.4069513377276011, -0.32352317852699625, 0.702092280431911, 0.34269250962959663, -0.5294980914879003, -0.9052611947228979, 0.08354980990741946, -0.3579287460016761, -0.9190477279154147, 0.32824756114400583, 0.7073132901037694, 1.5768426224159275, 2.952698181520608, 3.794251947644046, 2.3438657822815543, 1.0593647314559491, -0.181427423189478, -0.2532847304992785, 0.4066610532448114, 0.7063885184898739, 1.0486411540681593, 0.009769592890510452, -2.603799006229942, -4.85404314847162, -4.998124307569044, -3.3469379946633464, -1.785532194830645, -0.18481434298033794, -0.07422383540606001, 0.8440842148276376, 0.7380769998588577, 0.0342607656803702, -0.6475224584220277, 0.14667465127473825, 0.7030167566755811, 1.4109941135318511, 0.7466079347788445, -0.9106562002241043, -0.8989812308885158, -0.848872970773177, -0.04209215667262475, 0.8442408641545963, 1.6392536467662986, 2.2525475882550343, 4.14074953832152, 3.4896547301341068, 2.0652447619352925, 0.25301192882845525, -0.17554916344937427, -0.4324453509607817, -1.1644504136176126, -1.218738197988588, -0.7866111773717904, -1.079534682134068, -0.27352952892679605, 0.8626437705182051, 2.3006207093564712, 1.4528400473052523, 0.6545536649810237, -0.13044685851184243, -0.3023599403557482, 0.17847570705879465, -0.2506024568621411, -1.1554159396163979, -1.3316314605321031, 0.5144689442877857, 0.7526598148536875, 1.2785349507209502, 0.4946366218516135, 1.2692515431108464, -0.7326922078790664, -1.2010424451571808, -1.8913707443456178, -1.7304550374586993, -0.6288167947778024, 0.05924778536674699, 1.2728350075577262, -3.9999582973650534], "delta": 0.000595432593960175}, {"inputs": 80, "activation": 1.9779444838139864, "output": 0.8784618722810891, "weights": [-0.15427529473741095, 1.0009881156151579, 2.0019552749905953, 0.028431116656230094, -0.8214992006855615, -0.17586442979876968, 0.020054713578637983, 0.187959900160195, -0.5564756056775871, -0.4149827470902566, -0.12582674700523389, 0.31416721659026625, 0.25840787141154486, -0.11472654845082887, 0.6151113981440769, 1.1673161757483637, 0.9643558446353355, 1.1597791471792036, 0.4710713341263648, 0.2971305369774821, 0.41353106734346656, 0.6584483222840211, 0.08639726507233642, 0.6846146380675973, 0.19323407419115235, 1.6881529640603432, 2.9258813900746907, 2.591164348691989, 1.0994807490144751, 1.0972261597001738, 0.8202360862346796, 0.2950934146582077, -0.3913331981155075, -0.3966251288671543, -0.10841991701281724, 0.449506630392221, 0.8700734792638153, 2.319995096186473, 3.6053518339383284, 1.0247111486380973, 0.4430892092085097, -0.06485786746650131, -0.13392698063153172, 0.06566433898750444, 0.8239078619020362, 0.5703633947397339, 1.5061417086978268, 2.270079331120965, 2.113039385129586, 1.0212076686874163, 0.5436963899110284, 0.7260787298053255, 0.320660353915285, -0.2881848853825548, -0.35811934616739644, -0.12958250623205547, 0.100820062556656, 0.18936172552659017, 0.8704508143810719, 0.6676037289843749, 0.7920533459563425, 0.12120412446673982, -0.015577880050320654, 0.6066943506130226, 0.6521260479962798, 1.3648732967727155, 0.7104075182865526, 0.10300439742374017, 0.8154794613224882, 0.2446663606963553, -0.16178482195811444, 1.4233048705092048, 2.967406452041107, 2.989348947170316, 2.943691400166212, 1.9912061427923888, 0.22810003598418968, -0.015215386756526722, 0.6835906082149655, 0.4967326632024356, 0.14629365514887344], "delta": 0.0002506296666847959}], [{"inputs": 4, "activation": 1.50838171013809, "output": 0.818821252533162, "weights": [2.2218062365352447, -0.032098147757094984, 0.5520035810063467, -0.5490341737122288, 0.2214704515035929], "delta": -9.213254818198046e-05}, {"inputs": 4, "activation": 1.4681004360863366, "output": 0.8127684899644507, "weights": [-6.516044241242092, 1.2303209853649986, 5.4652684383072145, 4.97318910194744, -1.4653949809088913], "delta": 0.00024667289537804924}, {"inputs": 4, "activation": 1.271148842845406, "output": 0.7809393474315347, "weights": [-5.968607347262897, 1.2506854917928447, 4.930791193404007, 4.354264434122463, -1.3199470467834442], "delta": 0.00024577646530790447}], [{"inputs": 3, "activation": 4.229493202892226, "output": 0.9856491771179687, "weights": [-3.059348515863132, 7.985537385340193, 7.077624260418282, -5.282737156635483], "delta": 0.00020299062113750572}]], "configuration": [80, 4, 3, 1], "name": "C6res"}